<?xml version="1.0"?>
<opencv_storage>
<cascade>
  <stageType>BOOST</stageType>
  <featureType>HAAR</featureType>
  <height>88</height>
  <width>38</width>
  <stageParams>
    <boostType>GAB</boostType>
    <minHitRate>9.9500000476837158e-01</minHitRate>
    <maxFalseAlarm>5.0000000000000000e-01</maxFalseAlarm>
    <weightTrimRate>9.4999998807907104e-01</weightTrimRate>
    <maxDepth>1</maxDepth>
    <maxWeakCount>100</maxWeakCount></stageParams>
  <featureParams>
    <maxCatCount>0</maxCatCount>
    <featSize>1</featSize>
    <mode>BASIC</mode></featureParams>
  <stageNum>5</stageNum>
  <stages>
    <!-- stage 0 -->
    <_>
      <maxWeakCount>5</maxWeakCount>
      <stageThreshold>-1.3304786682128906e+00</stageThreshold>
      <weakClassifiers>
        <_>
          <internalNodes>
            0 -1 15 -3.5015039145946503e-02</internalNodes>
          <leafValues>
            2.1875000000000000e-01 -7.4083131551742554e-01</leafValues></_>
        <_>
          <internalNodes>
            0 -1 2 -4.9289890739601105e-05</internalNodes>
          <leafValues>
            3.1357371807098389e-01 -7.5206351280212402e-01</leafValues></_>
        <_>
          <internalNodes>
            0 -1 3 3.4489895915612578e-04</internalNodes>
          <leafValues>
            2.5805681943893433e-01 -8.3557254076004028e-01</leafValues></_>
        <_>
          <internalNodes>
            0 -1 4 -5.2603206131607294e-04</internalNodes>
          <leafValues>
            6.3818562030792236e-01 -4.0897536277770996e-01</leafValues></_>
        <_>
          <internalNodes>
            0 -1 11 4.2331805452704430e-03</internalNodes>
          <leafValues>
            -7.1096384525299072e-01 3.5980293154716492e-01</leafValues></_></weakClassifiers></_>
    <!-- stage 1 -->
    <_>
      <maxWeakCount>4</maxWeakCount>
      <stageThreshold>-8.1907844543457031e-01</stageThreshold>
      <weakClassifiers>
        <_>
          <internalNodes>
            0 -1 17 -1.4124948065727949e-03</internalNodes>
          <leafValues>
            3.7373736500740051e-01 -7.1232879161834717e-01</leafValues></_>
        <_>
          <internalNodes>
            0 -1 16 8.0298364162445068e-02</internalNodes>
          <leafValues>
            1.5303327143192291e-01 -9.7318512201309204e-01</leafValues></_>
        <_>
          <internalNodes>
            0 -1 5 4.3137341737747192e-02</internalNodes>
          <leafValues>
            -4.5330971479415894e-01 5.3491240739822388e-01</leafValues></_>
        <_>
          <internalNodes>
            0 -1 0 3.4051143302349374e-05</internalNodes>
          <leafValues>
            3.2707121968269348e-01 -7.9469531774520874e-01</leafValues></_></weakClassifiers></_>
    <!-- stage 2 -->
    <_>
      <maxWeakCount>4</maxWeakCount>
      <stageThreshold>-6.8759727478027344e-01</stageThreshold>
      <weakClassifiers>
        <_>
          <internalNodes>
            0 -1 12 1.1098488233983517e-02</internalNodes>
          <leafValues>
            -6.5714287757873535e-01 1.</leafValues></_>
        <_>
          <internalNodes>
            0 -1 6 3.8027183618396521e-03</internalNodes>
          <leafValues>
            2.9815405607223511e-01 -9.1213411092758179e-01</leafValues></_>
        <_>
          <internalNodes>
            0 -1 1 1.5864492161199450e-04</internalNodes>
          <leafValues>
            3.0767664313316345e-01 -8.7407565116882324e-01</leafValues></_>
        <_>
          <internalNodes>
            0 -1 14 2.4053294328041375e-04</internalNodes>
          <leafValues>
            -6.2340176105499268e-01 5.7400304079055786e-01</leafValues></_></weakClassifiers></_>
    <!-- stage 3 -->
    <_>
      <maxWeakCount>3</maxWeakCount>
      <stageThreshold>-7.0631158351898193e-01</stageThreshold>
      <weakClassifiers>
        <_>
          <internalNodes>
            0 -1 8 -3.4249041229486465e-02</internalNodes>
          <leafValues>
            1. -7.3875802755355835e-01</leafValues></_>
        <_>
          <internalNodes>
            0 -1 9 -2.4664370343089104e-02</internalNodes>
          <leafValues>
            1. -4.7105672955513000e-01</leafValues></_>
        <_>
          <internalNodes>
            0 -1 18 1.6901094466447830e-02</internalNodes>
          <leafValues>
            5.0350320339202881e-01 -8.6341995000839233e-01</leafValues></_></weakClassifiers></_>
    <!-- stage 4 -->
    <_>
      <maxWeakCount>3</maxWeakCount>
      <stageThreshold>-7.9302078485488892e-01</stageThreshold>
      <weakClassifiers>
        <_>
          <internalNodes>
            0 -1 10 -2.3005840193945915e-04</internalNodes>
          <leafValues>
            -9.0610331296920776e-01 1.</leafValues></_>
        <_>
          <internalNodes>
            0 -1 13 1.2096553837182000e-04</internalNodes>
          <leafValues>
            1. -8.8691747188568115e-01</leafValues></_>
        <_>
          <internalNodes>
            0 -1 7 6.4316659700125456e-04</internalNodes>
          <leafValues>
            1. -7.6664668321609497e-01</leafValues></_></weakClassifiers></_></stages>
  <features>
    <_>
      <rects>
        <_>
          0 72 2 11 -1.</_>
        <_>
          1 72 1 11 2.</_></rects>
      <tilted>0</tilted></_>
    <_>
      <rects>
        <_>
          1 4 1 8 -1.</_>
        <_>
          1 8 1 4 2.</_></rects>
      <tilted>0</tilted></_>
    <_>
      <rects>
        <_>
          1 41 2 46 -1.</_>
        <_>
          2 41 1 46 2.</_></rects>
      <tilted>0</tilted></_>
    <_>
      <rects>
        <_>
          2 87 33 1 -1.</_>
        <_>
          13 87 11 1 3.</_></rects>
      <tilted>0</tilted></_>
    <_>
      <rects>
        <_>
          5 56 2 29 -1.</_>
        <_>
          6 56 1 29 2.</_></rects>
      <tilted>0</tilted></_>
    <_>
      <rects>
        <_>
          6 25 24 36 -1.</_>
        <_>
          6 37 24 12 3.</_></rects>
      <tilted>0</tilted></_>
    <_>
      <rects>
        <_>
          9 70 16 15 -1.</_>
        <_>
          17 70 8 15 2.</_></rects>
      <tilted>0</tilted></_>
    <_>
      <rects>
        <_>
          12 57 6 23 -1.</_>
        <_>
          14 57 2 23 3.</_></rects>
      <tilted>0</tilted></_>
    <_>
      <rects>
        <_>
          16 12 22 27 -1.</_>
        <_>
          27 12 11 27 2.</_></rects>
      <tilted>0</tilted></_>
    <_>
      <rects>
        <_>
          16 54 22 27 -1.</_>
        <_>
          16 63 22 9 3.</_></rects>
      <tilted>0</tilted></_>
    <_>
      <rects>
        <_>
          18 70 2 12 -1.</_>
        <_>
          19 70 1 12 2.</_></rects>
      <tilted>0</tilted></_>
    <_>
      <rects>
        <_>
          19 29 18 58 -1.</_>
        <_>
          19 29 9 29 2.</_>
        <_>
          28 58 9 29 2.</_></rects>
      <tilted>0</tilted></_>
    <_>
      <rects>
        <_>
          19 53 16 12 -1.</_>
        <_>
          19 57 16 4 3.</_></rects>
      <tilted>0</tilted></_>
    <_>
      <rects>
        <_>
          20 7 6 2 -1.</_>
        <_>
          22 7 2 2 3.</_></rects>
      <tilted>0</tilted></_>
    <_>
      <rects>
        <_>
          22 82 14 6 -1.</_>
        <_>
          22 85 14 3 2.</_></rects>
      <tilted>0</tilted></_>
    <_>
      <rects>
        <_>
          23 6 14 48 -1.</_>
        <_>
          30 6 7 48 2.</_></rects>
      <tilted>0</tilted></_>
    <_>
      <rects>
        <_>
          28 0 10 86 -1.</_>
        <_>
          28 43 10 43 2.</_></rects>
      <tilted>0</tilted></_>
    <_>
      <rects>
        <_>
          30 6 2 35 -1.</_>
        <_>
          31 6 1 35 2.</_></rects>
      <tilted>0</tilted></_>
    <_>
      <rects>
        <_>
          31 14 7 42 -1.</_>
        <_>
          31 28 7 14 3.</_></rects>
      <tilted>0</tilted></_></features></cascade>
</opencv_storage>
